1: [1]
2: [1, 2]
3: [1, 1, 2]
4: [2]
5: [2, 4]
6: [2, 2, 4]
7: [2, 1, 1, 1, 4]
8: [2, 1, 4]
9: [3]
X: [3, 6]
E: [3, 3, 6]
10: [3, 2, 6]
11: [3, 1, 1, 1, 1, 6]
12: [3, 1, 2, 1, 6]
13: [3, 1, 6]
14: [4]
15: [4, 8]
16: [4, 4, 8]
17: [4, 2, 1, 3, 1, 2, 8]
18: [4, 2, 8]
19: [4, 1, 1, 2, 1, 1, 8]
1X: [4, 1, 2, 4, 2, 1, 8]
1E: [4, 1, 3, 1, 8]
20: [4, 1, 8]
21: [5]
22: [5, X]
23: [5, 5, X]
24: [5, 3, 2, 3, X]
25: [5, 2, 1, 1, 2, X]
26: [5, 2, X]
27: [5, 1, 1, 3, 5, 3, 1, 1, X]
28: [5, 1, 1, 1, X]
29: [5, 1, 2, 1, X]
2X: [5, 1, 4, 1, X]
2E: [5, 1, X]
30: [6]
31: [6, 10]
32: [6, 6, 10]
33: [6, 4, 10]
34: [6, 3, 10]
35: [6, 2, 2, 10]
36: [6, 2, 10]
37: [6, 1, 1, 3, 1, 5, 1, 3, 1, 1, 10]
38: [6, 1, 1, 1, 2, 1, 1, 1, 10]
39: [6, 1, 2, 2, 2, 1, 10]
3X: [6, 1, 3, 1, 1, 2, 6, 2, 1, 1, 3, 1, 10]
3E: [6, 1, 5, 1, 10]
40: [6, 1, 10]
41: [7]
42: [7, 12]
43: [7, 7, 12]
44: [7, 4, 1, 2, 1, 4, 12]
45: [7, 3, 1, 1, 3, 12]
46: [7, 2, 1, 6, 1, 2, 12]
47: [7, 2, 2, 2, 12]
48: [7, 2, 12]
49: [7, 1, 1, 4, 1, 1, 12]
4X: [7, 1, 1, 1, 1, 1, 1, 12]
4E: [7, 1, 2, 7, 2, 1, 12]
50: [7, 1, 2, 1, 12]
51: [7, 1, 4, 3, 1, 2, 2, 1, 3, 4, 1, 12]
52: [7, 1, 6, 1, 12]
53: [7, 1, 12]
54: [8]
55: [8, 14]
56: [8, 8, 14]
57: [8, 5, 2, 1, 1, 7, 1, 1, 2, 5, 14]
58: [8, 4, 14]
59: [8, 3, 3, 1, 4, 1, 3, 3, 14]
5X: [8, 2, 1, 2, 1, 2, 14]
5E: [8, 2, 2, 1, 7, 1, 2, 2, 14]
60: [8, 2, 14]
61: [8, 1, 1, 5, 5, 1, 1, 14]
62: [8, 1, 1, 1, 1, 14]
63: [8, 1, 1, 1, 14]
64: [8, 1, 2, 1, 1, 5, 4, 5, 1, 1, 2, 1, 14]
65: [8, 1, 3, 2, 3, 1, 14]
66: [8, 1, 4, 1, 14]
67: [8, 1, 7, 1, 14]
68: [8, 1, 14]
69: [9]
6X: [9, 16]
6E: [9, 9, 16]
70: [9, 6, 16]
71: [9, 4, 1, 1, 4, 16]
72: [9, 3, 1, 1, 1, 8, 1, 1, 1, 3, 16]
73: [9, 3, 16]
74: [9, 2, 1, 1, 1, 2, 16]
75: [9, 2, 3, 3, 2, 16]
76: [9, 2, 16]
77: [9, 1, 1, 5, 1, 5, 1, 1, 16]
78: [9, 1, 1, 2, 4, 2, 1, 1, 16]
79: [9, 1, 1, 1, 4, 6, 4, 1, 1, 1, 16]
7X: [9, 1, 2, 3, 1, 1, 5, 1, 8, 1, 5, 1, 1, 3, 2, 1, 16]
7E: [9, 1, 2, 1, 16]
80: [9, 1, 3, 1, 16]
81: [9, 1, 5, 1, 1, 1, 1, 1, 1, 5, 1, 16]
82: [9, 1, 8, 1, 16]
83: [9, 1, 16]
84: [X]
85: [X, 18]
86: [X, X, 18]
87: [X, 6, 1, 2, 1, 1, 9, 1, 1, 2, 1, 6, 18]
88: [X, 5, 18]
89: [X, 4, 18]
8X: [X, 3, 2, 1, 1, 1, 1, 2, 3, 18]
8E: [X, 2, 1, 9, 1, 2, 18]
90: [X, 2, 1, 1, 4, 1, 1, 2, 18]
91: [X, 2, 3, 1, 2, 4, 1, 6, 6, 1, 4, 2, 1, 3, 2, 18]
92: [X, 2, 18]
93: [X, 1, 1, 6, 1, 1, 18]
94: [X, 1, 1, 2, 1, 1, 18]
95: [X, 1, 1, 1, 2, 2, 1, 1, 1, 18]
96: [X, 1, 2, X, 2, 1, 18]
97: [X, 1, 2, 1, 1, 1, 1, 1, 2, 1, 18]
98: [X, 1, 3, 2, 1, 4, 1, 2, 3, 1, 18]
99: [X, 1, 4, 2, 4, 1, 18]
9X: [X, 1, 6, 3, 2, X, 2, 3, 6, 1, 18]
9E: [X, 1, 9, 1, 18]
X0: [X, 1, 18]
X1: [E]
X2: [E, 1X]
X3: [E, E, 1X]
X4: [E, 7, 2, 1, 1, 1, 3, 1, 4, 1, 3, 1, 1, 1, 2, 7, 1X]
X5: [E, 5, 1, 1, 5, 1X]
X6: [E, 4, 2, 4, 1X]
X7: [E, 3, 1, 2, 2, 7, E, 7, 2, 2, 1, 3, 1X]
X8: [E, 3, 5, 3, 1X]
X9: [E, 2, 1, 3, 1, 6, 1, 3, 1, 2, 1X]
XX: [E, 2, 2, 1X]
XE: [E, 2, 4, E, 4, 2, 1X]
E0: [E, 2, 1X]
E1: [E, 1, 1, 7, 5, 1, 1, 1, 2, 1, 1, 1, 5, 7, 1, 1, 1X]
E2: [E, 1, 1, 2, 1, 3, 1, X, 1, 3, 1, 2, 1, 1, 1X]
E3: [E, 1, 1, 1, 1, 1, 1, 1, 1X]
E4: [E, 1, 1, 1, 1X]
E5: [E, 1, 2, 2, 1, 1, 2, 2, 1, 1X]
E6: [E, 1, 2, 1, 1X]
E7: [E, 1, 3, 1, 3, 7, 1, 1, 2, E, 2, 1, 1, 7, 3, 1, 3, 1, 1X]
E8: [E, 1, 4, 1, 1X]
E9: [E, 1, 6, 1, 1X]
EX: [E, 1, X, 1, 1X]
EE: [E, 1, 1X]
100: [10]
101: [10, 20]
102: [10, 10, 20]
103: [10, 8, 20]
104: [10, 6, 20]
105: [10, 4, 1, 5, 3, 3, 5, 1, 4, 20]
106: [10, 4, 20]
107: [10, 3, 2, 7, 1, 3, 4, 1, 1, 1, E, 1, 1, 1, 4, 3, 1, 7, 2, 3, 20]
108: [10, 3, 20]
109: [10, 2, 1, 2, 2, 2, 1, 2, 20]
10X: [10, 2, 2, 3, 1, 2, 1, 3, 2, 2, 20]
10E: [10, 2, 4, 2, 20]
110: [10, 2, 20]
111: [10, 1, 1, 7, 1, 5, 2, 1, 1, 1, 1, 2, 5, 1, 7, 1, 1, 20]
112: [10, 1, 1, 3, 10, 3, 1, 1, 20]
113: [10, 1, 1, 1, 1, 3, 1, 1, 1, 1, 20]
114: [10, 1, 1, 1, 5, 1, 1, 1, 20]
115: [10, 1, 2, 4, 1, 2, 1, 4, 2, 1, 20]
116: [10, 1, 2, 1, 2, 10, 2, 1, 2, 1, 20]
117: [10, 1, 3, 3, 2, 1, 1, 7, 1, E, 1, 7, 1, 1, 2, 3, 3, 1, 20]
118: [10, 1, 4, 6, 4, 1, 20]
119: [10, 1, 5, 2, 5, 1, 20]
11X: [10, 1, 7, 1, 1, 1, 2, 4, 1, 3, 2, 10, 2, 3, 1, 4, 2, 1, 1, 1, 7, 1, 20]
11E: [10, 1, E, 1, 20]
120: [10, 1, 20]
121: [11]
122: [11, 22]
123: [11, 11, 22]
124: [11, 8, 1, 2, 2, 1, 1, 3, 6, 3, 1, 1, 2, 2, 1, 8, 22]
125: [11, 6, 1, 1, 6, 22]
126: [11, 5, 4, 5, 22]
127: [11, 4, 2, 1, 2, 4, 22]
128: [11, 3, 1, 3, 22]
129: [11, 3, 3, 2, 8, 2, 3, 3, 22]
12X: [11, 2, 1, 10, 1, 2, 22]
12E: [11, 2, 1, 1, 1, 3, 5, 11, 5, 3, 1, 1, 1, 2, 22]
130: [11, 2, 2, 2, 22]
131: [11, 2, 4, 1, 8, 6, 1, 1, 1, 1, 2, 2, 1, 1, 1, 1, 6, 8, 1, 4, 2, 22]
132: [11, 2, 22]
133: [11, 1, 1, 8, 1, 1, 22]
134: [11, 1, 1, 3, 2, 1, 2, 1, 2, 3, 1, 1, 22]
135: [11, 1, 1, 1, 1, 22]
136: [11, 1, 1, 1, 3, 4, 3, 1, 1, 1, 22]
137: [11, 1, 2, 11, 2, 1, 22]
138: [11, 1, 2, 2, 6, 2, 2, 1, 22]
139: [11, 1, 2, 1, 22]
13X: [11, 1, 3, 1, 1, 1, 2, 2, 2, 1, 1, 1, 3, 1, 22]
13E: [11, 1, 4, 1, 1, 3, 2, 2, 11, 2, 2, 3, 1, 1, 4, 1, 22]
140: [11, 1, 5, 1, 22]
141: [11, 1, 8, 3, 2, 1, 3, 3, 1, 2, 3, 8, 1, 22]
142: [11, 1, 10, 1, 22]
143: [11, 1, 22]
144: [12]
145: [12, 24]
146: [12, 12, 24]
147: [12, 9, 2, 1, 2, 2, 5, 4, 1, 1, 11, 1, 1, 4, 5, 2, 2, 1, 2, 9, 24]
148: [12, 7, 24]
149: [12, 5, 1, 1, 1, 2, 1, 8, 1, 2, 1, 1, 1, 5, 24]
14X: [12, 4, 1, 2, 2, 1, 4, 24]
14E: [12, 4, 24]
150: [12, 3, 1, 1, 6, 1, 1, 3, 24]
151: [12, 3, 6, 1, 4, 1, 6, 3, 24]
152: [12, 2, 1, 5, 12, 5, 1, 2, 24]
153: [12, 2, 1, 1, 2, 1, 1, 2, 24]
154: [12, 2, 2, 1, 2, 2, 24]
155: [12, 2, 5, 3, 2, 3, 5, 2, 24]
156: [12, 2, 24]
157: [12, 1, 1, 9, 5, 1, 2, 2, 1, 1, 4, 3, 1, 11, 1, 3, 4, 1, 1, 2, 2, 1, 5, 9, 1, 1, 24]
158: [12, 1, 1, 3, 1, 1, 1, 6, 1, 1, 1, 3, 1, 1, 24]
159: [12, 1, 1, 2, 6, 1, 8, 1, 6, 2, 1, 1, 24]
15X: [12, 1, 1, 1, 2, 3, 1, 4, 9, 1, 1, 5, 3, 12, 3, 5, 1, 1, 9, 4, 1, 3, 2, 1, 1, 1, 24]
15E: [12, 1, 1, 1, 24]
160: [12, 1, 2, 3, 2, 1, 24]
161: [12, 1, 2, 1, 2, 1, 1, 9, 4, 9, 1, 1, 2, 1, 2, 1, 24]
162: [12, 1, 3, 3, 1, 24]
163: [12, 1, 3, 1, 24]
164: [12, 1, 4, 1, 24]
165: [12, 1, 6, 2, 6, 1, 24]
166: [12, 1, 8, 1, 24]
167: [12, 1, 11, 1, 24]
168: [12, 1, 24]
169: [13]
16X: [13, 26]
16E: [13, 13, 26]
170: [13, X, 26]
171: [13, 7, 1, 1, 7, 26]
172: [13, 6, 26]
173: [13, 5, 26]
174: [13, 4, 3, 7, 3, 4, 26]
175: [13, 3, 1, 3, 1, 1, 1, 1, 3, 1, 3, 26]
176: [13, 3, 2, 1, 2, 1, 2, 3, 26]
177: [13, 3, 26]
178: [13, 2, 1, 3, 5, 1, 6, 1, 5, 3, 1, 2, 26]
179: [13, 2, 1, 1, 7, X, 7, 1, 1, 2, 26]
17X: [13, 2, 2, 1, 12, 1, 2, 2, 26]
17E: [13, 2, 5, 1, 2, 4, 13, 4, 2, 1, 5, 2, 26]
180: [13, 2, 26]
181: [13, 1, 1, 9, 1, 5, 3, 3, 1, 1, 3, 3, 5, 1, 9, 1, 1, 26]
182: [13, 1, 1, 3, 1, 12, 1, 3, 1, 1, 26]
183: [13, 1, 1, 2, 3, 13, 3, 2, 1, 1, 26]
184: [13, 1, 1, 1, 1, 1, 2, 1, 5, 1, 1, 9, 1, 6, 1, 9, 1, 1, 5, 1, 2, 1, 1, 1, 1, 1, 26]
185: [13, 1, 1, 1, 7, 6, 7, 1, 1, 1, 26]
186: [13, 1, 2, 5, 1, 12, 1, 5, 2, 1, 26]
187: [13, 1, 2, 1, 1, 9, 1, 9, 1, 1, 2, 1, 26]
188: [13, 1, 2, 1, 26]
189: [13, 1, 3, 1, 1, 5, 1, 3, X, 3, 1, 5, 1, 1, 3, 1, 26]
18X: [13, 1, 4, 3, 3, 4, 1, 26]
18E: [13, 1, 5, 2, 1, 2, 2, 13, 2, 2, 1, 2, 5, 1, 26]
190: [13, 1, 6, 1, 26]
191: [13, 1, 9, 1, 1, 1, 2, 1, 7, 4, 2, 2, 2, 4, 7, 1, 2, 1, 1, 1, 9, 1, 26]
192: [13, 1, 12, 1, 26]
193: [13, 1, 26]
194: [14]
195: [14, 28]
196: [14, 14, 28]
197: [14, X, 1, 2, 3, 4, 3, 2, 1, X, 28]
198: [14, 8, 28]
199: [14, 6, 2, 3, 7, 1, 3, 1, 2, 1, 3, 1, 7, 3, 2, 6, 28]
19X: [14, 5, 2, 1, 2, 1, X, 14, X, 1, 2, 1, 2, 5, 28]
19E: [14, 4, 1, 1, 1, 1, 13, 1, 1, 1, 1, 4, 28]
1X0: [14, 4, 28]
1X1: [14, 3, 1, 1, 2, 2, 1, 1, 3, 28]
1X2: [14, 3, 4, 3, 28]
1X3: [14, 2, 1, 13, 1, 2, 28]
1X4: [14, 2, 1, 2, 3, 3, 1, 3, 1, X, 8, X, 1, 3, 1, 3, 3, 2, 1, 2, 28]
1X5: [14, 2, 2, 28]
1X6: [14, 2, 3, 6, 3, 2, 28]
1X7: [14, 2, 6, X, 1, 4, 1, 1, 2, 1, 2, 1, 13, 1, 2, 1, 2, 1, 1, 4, 1, X, 6, 2, 28]
1X8: [14, 2, 28]
1X9: [14, 1, 1, X, 1, 1, 28]
1XX: [14, 1, 1, 4, 4, 1, 1, 28]
1XE: [14, 1, 1, 2, 1, 1, 28]
1E0: [14, 1, 1, 1, 1, 2, 2, 2, 1, 1, 1, 1, 28]
1E1: [14, 1, 1, 1, 4, X, 1, 7, 2, 2, 3, 3, 2, 2, 7, 1, X, 4, 1, 1, 1, 28]
1E2: [14, 1, 2, 14, 2, 1, 28]
1E3: [14, 1, 2, 2, 1, 2, 2, 1, 28]
1E4: [14, 1, 2, 1, 2, 1, 28]
1E5: [14, 1, 3, 4, 1, 1, 6, 6, 1, 1, 4, 3, 1, 28]
1E6: [14, 1, 3, 1, 4, 1, 3, 1, 28]
1E7: [14, 1, 4, 1, 1, 1, 3, X, 1, 13, 1, X, 3, 1, 1, 1, 4, 1, 28]
1E8: [14, 1, 5, 1, 3, 2, 1, 4, 8, 4, 1, 2, 3, 1, 5, 1, 28]
1E9: [14, 1, 7, 2, 7, 1, 28]
1EX: [14, 1, X, 3, 3, 2, 3, 3, X, 1, 28]
1EE: [14, 1, 13, 1, 28]
200: [14, 1, 28]
201: [15]
202: [15, 2X]
203: [15, 15, 2X]
204: [15, E, 2, 1, 3, 8, 3, 1, 2, E, 2X]
205: [15, 8, 1, 1, 8, 2X]
206: [15, 6, 1, 4, 1, 6, 2X]
207: [15, 5, 1, 2, 3, 2, 6, 2, 3, 2, 1, 5, 2X]
208: [15, 4, 1, 7, 1, 4, 2X]
209: [15, 4, 3, 1, 1, 2, 1, 1, 3, 4, 2X]
20X: [15, 3, 1, 4, 5, 1, 1, 5, 4, 1, 3, 2X]
20E: [15, 3, 2, 3, 2X]
210: [15, 3, 8, 3, 2X]
211: [15, 2, 1, 6, 3, 1, 2, 2, 1, 1, 8, E, 2, 4, 2, E, 8, 1, 1, 2, 2, 1, 3, 6, 1, 2, 2X]
212: [15, 2, 1, 1, 1, 4, 2, 1, 14, 1, 2, 4, 1, 1, 1, 2, 2X]
213: [15, 2, 2, 5, 2, 2, 2X]
214: [15, 2, 3, 2, 1, 1, 1, 1, 1, 2, 3, 2, 2X]
215: [15, 2, 6, 2, 2X]
216: [15, 2, 2X]
217: [15, 1, 1, E, 5, 1, 3, 15, 3, 1, 5, E, 1, 1, 2X]
218: [15, 1, 1, 4, 1, 1, 2X]
219: [15, 1, 1, 2, 1, 2, 4, 1, 1, 1, 8, 6, 1, X, 1, 6, 8, 1, 1, 1, 4, 2, 1, 2, 1, 1, 2X]
21X: [15, 1, 1, 1, 1, 5, 3, 1, 2, 1, 3, 5, 1, 1, 1, 1, 2X]
21E: [15, 1, 1, 1, 2, 1, 6, 3, 15, 3, 6, 1, 2, 1, 1, 1, 2X]
220: [15, 1, 1, 1, 2X]
221: [15, 1, 2, 4, E, 1, 1, 3, 2, 2, 3, 1, 1, E, 4, 2, 1, 2X]
222: [15, 1, 2, 1, 1, 2, 1, 2X]
223: [15, 1, 2, 1, 2X]
224: [15, 1, 3, 2, 8, 2, 3, 1, 2X]
225: [15, 1, 4, 8, 1, 2, 2, 1, 8, 4, 1, 2X]
226: [15, 1, 4, 1, 2X]
227: [15, 1, 6, 5, 1, 4, 3, 1, 3, 4, 1, 5, 6, 1, 2X]
228: [15, 1, 7, 1, 2X]
229: [15, 1, X, 1, 2X]
22X: [15, 1, 14, 1, 2X]
22E: [15, 1, 2X]
230: [16]
231: [16, 30]
232: [16, 16, 30]
233: [16, 10, 30]
234: [16, 9, 30]
235: [16, 7, 4, 2, 1, 1, 4, 1, 1, 2, 4, 7, 30]
236: [16, 6, 30]
237: [16, 5, 5, 1, 6, 2, 3, 1, 1, 2, 1, 2, 1, E, 2, 1, 1, 15, 1, 1, 2, E, 1, 2, 1, 2, 1, 1, 3, 2, 6, 1, 5, 5, 30]
238: [16, 4, 1, 1, 8, 1, 1, 4, 30]
239: [16, 4, 30]
23X: [16, 3, 1, 1, 1, 2, 5, 1, 2, 2, E, 1, 3, 7, 16, 7, 3, 1, E, 2, 2, 1, 5, 2, 1, 1, 1, 3, 30]
23E: [16, 3, 3, 3, 30]
240: [16, 3, 30]
241: [16, 2, 1, 3, 1, E, 2, 4, 1, 3, 3, 1, 4, 2, E, 1, 3, 1, 2, 30]
242: [16, 2, 1, 1, 2, 30]
243: [16, 2, 2, 2, 1, 15, 1, 2, 2, 2, 30]
244: [16, 2, 3, 1, 1, 1, 1, 8, 1, 1, 1, 1, 3, 2, 30]
245: [16, 2, 6, 1, 8, 2, 1, 2, 1, 2, 8, 1, 6, 2, 30]
246: [16, 2, 30]
247: [16, 1, 1, E, 1, 5, 3, 1, 15, 1, 3, 5, 1, E, 1, 1, 30]
248: [16, 1, 1, 4, 1, 3, 1, 4, 1, 1, 30]
249: [16, 1, 1, 2, 1, 6, 1, 2, 1, 1, 30]
24X: [16, 1, 1, 1, 1, 30]
24E: [16, 1, 1, 1, 2, 4, 1, 15, 1, 4, 2, 1, 1, 1, 30]
250: [16, 1, 1, 1, 8, 1, 1, 1, 30]
251: [16, 1, 2, 7, 7, 2, 1, 30]
252: [16, 1, 2, 2, 2, 1, 30]
253: [16, 1, 2, 1, 3, 2, 2, 2, 3, 1, 2, 1, 30]
254: [16, 1, 3, 5, 9, 5, 3, 1, 30]
255: [16, 1, 3, 1, 2, 1, 1, 1, 1, 1, 1, 2, 1, 3, 1, 30]
256: [16, 1, 4, 2, 2, 16, 2, 2, 4, 1, 30]
257: [16, 1, 5, 3, 3, 1, 6, 1, 3, 3, 5, 1, 30]
258: [16, 1, 6, 1, 1, 2, 1, 8, 1, 2, 1, 1, 6, 1, 30]
259: [16, 1, 8, 2, 8, 1, 30]
25X: [16, 1, E, 1, 1, 1, 3, 1, 1, 4, 1, 5, 2, 16, 2, 5, 1, 4, 1, 1, 3, 1, 1, 1, E, 1, 30]
25E: [16, 1, 15, 1, 30]
260: [16, 1, 30]
261: [17]
262: [17, 32]
263: [17, 17, 32]
264: [17, 10, 1, 2, 3, 1, 8, 1, 3, 2, 1, 10, 32]
265: [17, 9, 1, 1, 9, 32]
266: [17, 7, 1, 1, 1, 2, 10, 2, 1, 1, 1, 7, 32]
267: [17, 6, 2, 1, 3, 1, 1, 2, 1, 10, 17, 10, 1, 2, 1, 1, 3, 1, 2, 6, 32]
268: [17, 5, 2, 5, 32]
269: [17, 4, 1, 3, 2, 7, 4, 7, 2, 3, 1, 4, 32]
26X: [17, 4, 4, 32]
26E: [17, 3, 1, 4, 1, 3, 32]
270: [17, 3, 2, 10, 2, 3, 32]
271: [17, 3, 5, 5, 3, 32]
272: [17, 2, 1, 16, 1, 2, 32]
273: [17, 2, 1, 2, 1, 5, 1, 2, 1, 2, 32]
274: [17, 2, 1, 1, 3, 1, 2, 2, 4, 2, 2, 1, 3, 1, 1, 2, 32]
275: [17, 2, 2, 2, 32]
276: [17, 2, 3, 1, 4, 1, 3, 2, 32]
277: [17, 2, 7, 3, 2, 2, 6, 10, 1, 4, 1, 1, 1, 3, 4, 17, 4, 3, 1, 1, 1, 4, 1, 10, 6, 2, 2, 3, 7, 2, 32]
278: [17, 2, 32]
279: [17, 1, 1, 10, 1, 1, 32]
27X: [17, 1, 1, 5, 10, 1, 5, 1, 1, 2, 3, 1, 16, 1, 3, 2, 1, 1, 5, 1, 10, 5, 1, 1, 32]
27E: [17, 1, 1, 3, 17, 3, 1, 1, 32]
280: [17, 1, 1, 2, 9, 2, 1, 1, 32]
281: [17, 1, 1, 1, 1, 1, 3, 1, 2, 1, 3, 1, 1, 1, 1, 1, 32]
282: [17, 1, 1, 1, 4, 1, 16, 1, 4, 1, 1, 1, 32]
283: [17, 1, 2, 17, 2, 1, 32]
284: [17, 1, 2, 3, 4, 10, 1, 8, 1, 10, 4, 3, 2, 1, 32]
285: [17, 1, 2, 1, 1, 1, 1, 2, 1, 32]
286: [17, 1, 2, 1, 32]
287: [17, 1, 3, 2, 2, 1, 1, 2, 17, 2, 1, 1, 2, 2, 3, 1, 32]
288: [17, 1, 3, 1, 32]
289: [17, 1, 4, 1, 2, 4, 1, 1, 1, 1, 10, 1, 1, 1, 1, 4, 2, 1, 4, 1, 32]
28X: [17, 1, 5, 1, 1, 1, 3, 1, 3, 5, 2, 2, 5, 3, 1, 3, 1, 1, 1, 5, 1, 32]
28E: [17, 1, 6, 1, 32]
290: [17, 1, 8, 1, 32]
291: [17, 1, 10, 3, 4, 9, 1, 2, 1, 2, 1, 1, 2, 1, 2, 1, 9, 4, 3, 10, 1, 32]
292: [17, 1, 16, 1, 32]
293: [17, 1, 32]
294: [18]
295: [18, 34]
296: [18, 18, 34]
297: [18, 11, 2, 1, 3, 1, 3, 1, 2, 11, 34]
298: [18, X, 34]
299: [18, 8, 34]
29X: [18, 6, 1, 2, 4, 7, 1, 4, 1, 7, 4, 2, 1, 6, 34]
29E: [18, 5, 1, 2, 1, 5, 34]
2X0: [18, 5, 34]
2X1: [18, 4, 2, 7, 1, 1, 1, 4, 2, 2, 11, 11, 2, 2, 4, 1, 1, 1, 7, 2, 4, 34]
2X2: [18, 4, 34]
2X3: [18, 3, 1, 1, 1, 17, 1, 1, 1, 3, 34]
2X4: [18, 3, 2, 1, 3, 1, 4, 3, 2, 11, X, 11, 2, 3, 4, 1, 3, 1, 2, 3, 34]
2X5: [18, 3, 9, 1, 4, 1, 9, 3, 34]
2X6: [18, 2, 1, 7, 2, 7, 1, 2, 34]
2X7: [18, 2, 1, 2, 4, 6, 1, 1, 3, 1, 1, 6, 4, 2, 1, 2, 34]
2X8: [18, 2, 1, 1, 9, 1, 1, 2, 34]
2X9: [18, 2, 2, 1, 1, 1, 5, 4, 1, 10, 1, 4, 5, 1, 1, 1, 2, 2, 34]
2XX: [18, 2, 4, 18, 4, 2, 34]
2XE: [18, 2, 7, 1, 2, 3, 1, 2, 1, 17, 1, 2, 1, 3, 2, 1, 7, 2, 34]
2E0: [18, 2, 34]
2E1: [18, 1, 1, 11, 5, 1, 3, 1, 2, 1, 1, 1, 2, 9, 1, 7, 3, 3, 2, 2, 3, 3, 7, 1, 9, 2, 1, 1, 1, 2, 1, 3, 1, 5, 11, 1, 1, 34]
2E2: [18, 1, 1, 5, 2, 1, 3, 18, 3, 1, 2, 5, 1, 1, 34]
2E3: [18, 1, 1, 3, 4, 3, 1, 1, 34]
2E4: [18, 1, 1, 2, 4, 5, 1, 1, 1, 9, 1, 1, 1, 5, 4, 2, 1, 1, 34]
2E5: [18, 1, 1, 1, 1, 1, 1, 34]
2E6: [18, 1, 1, 1, 3, 2, 6, 2, 3, 1, 1, 1, 34]
2E7: [18, 1, 1, 1, 34]
2E8: [18, 1, 2, 4, 1, 5, X, 5, 1, 4, 2, 1, 34]
2E9: [18, 1, 2, 2, 9, 1, 10, 1, 9, 2, 2, 1, 34]
2EX: [18, 1, 2, 1, 3, 1, 6, 8, 6, 1, 3, 1, 2, 1, 34]
2EE: [18, 1, 3, 5, 1, 2, 7, 1, 17, 1, 7, 2, 1, 5, 3, 1, 34]
300: [18, 1, 3, 1, 1, 1, 3, 1, 34]
301: [18, 1, 4, 4, 2, 2, 1, 3, 11, 1, 1, 1, 1, 11, 3, 1, 2, 2, 4, 4, 1, 34]
302: [18, 1, 4, 1, 34]
303: [18, 1, 5, 1, 34]
304: [18, 1, 7, 2, 1, 1, 1, 11, 3, 2, 2, 5, 1, 1, 4, X, 4, 1, 1, 5, 2, 2, 3, 11, 1, 1, 1, 2, 7, 1, 34]
305: [18, 1, 9, 2, 9, 1, 34]
306: [18, 1, 10, 1, 34]
307: [18, 1, 17, 1, 34]
308: [18, 1, 34]
309: [19]
30X: [19, 36]
30E: [19, 19, 36]
310: [19, 12, 36]
311: [19, X, 1, 1, X, 36]
312: [19, 8, 2, 2, 1, 3, 1, 1, 18, 1, 1, 3, 1, 2, 2, 8, 36]
313: [19, 7, 36]
314: [19, 6, 36]
315: [19, 5, 3, 1, 1, 1, 7, 1, 5, 5, 1, 7, 1, 1, 1, 3, 5, 36]
316: [19, 4, 1, 2, 4, 2, 1, 4, 36]
317: [19, 4, 4, 2, 8, 19, 8, 2, 4, 4, 36]
318: [19, 3, 1, 5, 3, X, 3, 5, 1, 3, 36]
319: [19, 3, 1, 1, X, 12, X, 1, 1, 3, 36]
31X: [19, 3, 3, 1, 11, 2, 3, 2, 1, 1, 4, 6, 1, 7, 1, 1, 1, 18, 1, 1, 1, 7, 1, 6, 4, 1, 1, 2, 3, 2, 11, 1, 3, 3, 36]
31E: [19, 3, 36]
320: [19, 2, 1, 4, 1, 2, 36]
321: [19, 2, 1, 1, 1, 5, 2, 11, 1, 3, 1, 4, 1, 1, 4, 1, 3, 1, 11, 2, 5, 1, 1, 1, 2, 36]
322: [19, 2, 2, 36]
323: [19, 2, 2, 1, 4, 19, 4, 1, 2, 2, 36]
324: [19, 2, 4, 3, 1, 2, X, 2, 1, 3, 4, 2, 36]
325: [19, 2, 8, X, 1, 1, 1, 1, 1, 1, 1, 1, X, 8, 2, 36]
326: [19, 2, 36]
327: [19, 1, 1, 11, 1, 5, 4, 1, 1, 1, 1, 2, 2, 6, 1, 3, 19, 3, 1, 6, 2, 2, 1, 1, 1, 1, 4, 5, 1, 11, 1, 1, 36]
328: [19, 1, 1, 5, 1, 1, 1, 5, 1, 1, 36]
329: [19, 1, 1, 3, 2, 2, 2, 3, 1, 1, 36]
32X: [19, 1, 1, 2, 2, 1, 2, 5, 1, 3, 1, 18, 1, 3, 1, 5, 2, 1, 2, 2, 1, 1, 36]
32E: [19, 1, 1, 1, 1, 3, 3, 19, 3, 3, 1, 1, 1, 1, 36]
330: [19, 1, 1, 1, 2, 1, 1, 1, 36]
331: [19, 1, 1, 1, X, 6, X, 1, 1, 1, 36]
332: [19, 1, 2, 8, 2, 1, 36]
333: [19, 1, 2, 2, 1, 3, 4, 12, 4, 3, 1, 2, 2, 1, 36]
334: [19, 1, 2, 1, 1, 1, 4, 5, 4, 1, 1, 1, 2, 1, 36]
335: [19, 1, 2, 1, 36]
336: [19, 1, 3, 2, 1, 1, 1, 6, 1, 1, 1, 2, 3, 1, 36]
337: [19, 1, 3, 1, 6, 2, 6, 1, 3, 1, 36]
338: [19, 1, 4, 2, X, 2, 4, 1, 36]
339: [19, 1, 5, 3, 1, 4, X, 1, 2, 2, 4, 2, 2, 1, X, 4, 1, 3, 5, 1, 36]
33X: [19, 1, 6, 3, 4, 1, 1, 5, 1, 2, 3, 1, 1, 1, 1, 1, 11, 1, 18, 1, 11, 1, 1, 1, 1, 1, 3, 2, 1, 5, 1, 1, 4, 3, 6, 1, 36]
33E: [19, 1, 7, 1, 3, 2, 19, 2, 3, 1, 7, 1, 36]
340: [19, 1, 9, 1, 36]
341: [19, 1, 11, 1, 1, 1, 4, 4, 1, 1, 1, 11, 1, 36]
342: [19, 1, 18, 1, 36]
343: [19, 1, 36]
344: [1X]
345: [1X, 38]
346: [1X, 1X, 38]
347: [1X, 12, 1, 2, 4, 1, 1, 3, 2, 5, 1, 6, 1, 1, 19, 1, 1, 6, 1, 5, 2, 3, 1, 1, 4, 2, 1, 12, 38]
348: [1X, E, 38]
349: [1X, 8, 1, 4, 1, 1, 1, 3, 2, 1, 2, 12, 2, 1, 2, 3, 1, 1, 1, 4, 1, 8, 38]
34X: [1X, 7, 2, 1, 4, 4, 4, 1, 2, 7, 38]
34E: [1X, 6, 3, 4, 8, 1, 1, 1, 2, 1, 1, 19, 1, 1, 2, 1, 1, 1, 8, 4, 3, 6, 38]
350: [1X, 5, 1, 1, X, 1, 1, 5, 38]
351: [1X, 4, 1, X, 3, 3, X, 1, 4, 38]
352: [1X, 4, 2, 2, 1, 2, 1, 2, 2, 4, 38]
353: [1X, 4, 38]
354: [1X, 3, 1, 2, 4, 1, 1, 2, 2, 2, 1, 1, 4, 2, 1, 3, 38]
355: [1X, 3, 2, 2, 5, 6, 5, 2, 2, 3, 38]
356: [1X, 3, 6, 1X, 6, 3, 38]
357: [1X, 2, 1, 19, 1, 2, 38]
358: [1X, 2, 1, 3, 2, 1, 1, X, 1, 1, 2, 3, 1, 2, 38]
359: [1X, 2, 1, 1, 1, 1, 3, 8, 1, 2, X, 1, 5, 2, 12, 2, 5, 1, X, 2, 1, 8, 3, 1, 1, 1, 1, 2, 38]
35X: [1X, 2, 2, 7, 12, 1, 4, 1X, 4, 1, 12, 7, 2, 2, 38]
35E: [1X, 2, 2, 1, 19, 1, 2, 2, 38]
360: [1X, 2, 4, 2, 38]
361: [1X, 2, 8, 2, 38]
362: [1X, 2, 38]
363: [1X, 1, 1, 12, 1, 1, 38]
364: [1X, 1, 1, 5, 1, 12, 5, 1, 1, 3, 4, 1, 2, 1, 1, 1, X, 1, 1, 1, 2, 1, 4, 3, 1, 1, 5, 12, 1, 5, 1, 1, 38]
365: [1X, 1, 1, 3, 1, 1, 2, X, 1, 8, 8, 1, X, 2, 1, 1, 3, 1, 1, 38]
366: [1X, 1, 1, 2, 1, 1, 38]
367: [1X, 1, 1, 1, 1, 6, 1, 12, 4, 1, 19, 1, 4, 12, 1, 6, 1, 1, 1, 1, 38]
368: [1X, 1, 1, 1, 2, 6, E, 6, 2, 1, 1, 1, 38]
369: [1X, 1, 1, 1, 5, 1, 4, 5, 2, 5, 4, 1, 5, 1, 1, 1, 38]
36X: [1X, 1, 2, 1X, 2, 1, 38]
36E: [1X, 1, 2, 3, 1, 3, 1, 3, 2, 1, 38]
370: [1X, 1, 2, 1, 1, 12, 1, 1, 2, 1, 38]
371: [1X, 1, 2, 1, 4, 3, 3, 2, X, 1, 12, 4, 12, 1, X, 2, 3, 3, 4, 1, 2, 1, 38]
372: [1X, 1, 3, 6, 3, 1, 38]
373: [1X, 1, 3, 1, 1, 2, 1, 2, 3, 7, 3, 2, 1, 2, 1, 1, 3, 1, 38]
374: [1X, 1, 4, E, 4, 1, 38]
375: [1X, 1, 4, 1, 2, 1, 2, 8, 1, 3, 3, 1, 8, 2, 1, 2, 1, 4, 1, 38]
376: [1X, 1, 5, 1, 1, 4, 1, 1, 5, 1, 38]
377: [1X, 1, 6, 1, 1, 1, 4, 2, 3, 12, 1, 19, 1, 12, 3, 2, 4, 1, 1, 1, 6, 1, 38]
378: [1X, 1, 8, 5, 1, 1, 1, 1, 2, 1, X, 1, 2, 1, 1, 1, 1, 5, 8, 1, 38]
379: [1X, 1, X, 2, X, 1, 38]
